digraph Tree {
node [shape=box] ;
0 [label="X[2] <= 2.45\ngini = 0.6666\nsamples = 149\nvalue = [49, 50, 50]"] ;
1 [label="gini = 0.0\nsamples = 49\nvalue = [49, 0, 0]"] ;
0 -> 1 [labeldistance=2.5, labelangle=45, headlabel="True"] ;
2 [label="X[0] <= 6.15\ngini = 0.5\nsamples = 100\nvalue = [0, 50, 50]"] ;
0 -> 2 [labeldistance=2.5, labelangle=-45, headlabel="False"] ;
3 [label="X[3] <= 1.65\ngini = 0.3856\nsamples = 46\nvalue = [0, 34, 12]"] ;
2 -> 3 ;
4 [label="X[0] <= 5.95\ngini = 0.1078\nsamples = 35\nvalue = [0, 33, 2]"] ;
3 -> 4 ;
5 [label="gini = 0.0\nsamples = 25\nvalue = [0, 25, 0]"] ;
4 -> 5 ;
6 [label="gini = 0.32\nsamples = 10\nvalue = [0, 8, 2]"] ;
4 -> 6 ;
7 [label="X[2] <= 4.85\ngini = 0.1653\nsamples = 11\nvalue = [0, 1, 10]"] ;
3 -> 7 ;
8 [label="gini = 0.4444\nsamples = 3\nvalue = [0, 1, 2]"] ;
7 -> 8 ;
9 [label="gini = 0.0\nsamples = 8\nvalue = [0, 0, 8]"] ;
7 -> 9 ;
10 [label="X[3] <= 1.75\ngini = 0.417\nsamples = 54\nvalue = [0, 16, 38]"] ;
2 -> 10 ;
11 [label="X[0] <= 7.1\ngini = 0.1975\nsamples = 18\nvalue = [0, 16, 2]"] ;
10 -> 11 ;
12 [label="gini = 0.1107\nsamples = 17\nvalue = [0, 16, 1]"] ;
11 -> 12 ;
13 [label="gini = 0.0\nsamples = 1\nvalue = [0, 0, 1]"] ;
11 -> 13 ;
14 [label="gini = 0.0\nsamples = 36\nvalue = [0, 0, 36]"] ;
10 -> 14 ;
}